<?xml version="1.0"?>
<opencv_storage>
<cascade>
  <stageType>BOOST</stageType>
  <featureType>HAAR</featureType>
  <height>20</height>
  <width>20</width>
  <stageParams>
    <boostType>GAB</boostType>
    <minHitRate>9.9900001287460327e-01</minHitRate>
    <maxFalseAlarm>5.0000000745058060e-02</maxFalseAlarm>
    <weightTrimRate>9.4999999999999996e-01</weightTrimRate>
    <maxDepth>1</maxDepth>
    <maxWeakCount>100</maxWeakCount></stageParams>
  <featureParams>
    <maxCatCount>0</maxCatCount>
    <featSize>1</featSize>
    <mode>ALL</mode></featureParams>
  <stageNum>3</stageNum>
  <stages>
    <!-- stage 0 -->
    <_>
      <maxWeakCount>7</maxWeakCount>
      <stageThreshold>-6.2917983531951904e-01</stageThreshold>
      <weakClassifiers>
        <_>
          <internalNodes>
            0 -1 9 3.8070240989327431e-03</internalNodes>
          <leafValues>
            -6.0862356424331665e-01 9.2443323135375977e-01</leafValues></_>
        <_>
          <internalNodes>
            0 -1 20 -1.5339117497205734e-02</internalNodes>
          <leafValues>
            6.8296182155609131e-01 -7.4595957994461060e-01</leafValues></_>
        <_>
          <internalNodes>
            0 -1 1 1.3155346736311913e-02</internalNodes>
          <leafValues>
            -8.1068921089172363e-01 6.0852313041687012e-01</leafValues></_>
        <_>
          <internalNodes>
            0 -1 14 -6.4408006146550179e-03</internalNodes>
          <leafValues>
            9.9547904729843140e-01 -4.8322519659996033e-01</leafValues></_>
        <_>
          <internalNodes>
            0 -1 15 -2.6899259537458420e-02</internalNodes>
          <leafValues>
            9.9853909015655518e-01 -5.1788586378097534e-01</leafValues></_>
        <_>
          <internalNodes>
            0 -1 3 -2.0196841433062218e-05</internalNodes>
          <leafValues>
            -1. 5.6918388605117798e-01</leafValues></_>
        <_>
          <internalNodes>
            0 -1 3 4.4015272578690201e-05</internalNodes>
          <leafValues>
            5.4880732297897339e-01 -9.7276872396469116e-01</leafValues></_></weakClassifiers></_>
    <!-- stage 1 -->
    <_>
      <maxWeakCount>7</maxWeakCount>
      <stageThreshold>-3.7577024102210999e-01</stageThreshold>
      <weakClassifiers>
        <_>
          <internalNodes>
            0 -1 12 -1.7021056264638901e-03</internalNodes>
          <leafValues>
            8.1893002986907959e-01 -7.7431905269622803e-01</leafValues></_>
        <_>
          <internalNodes>
            0 -1 7 4.0391953662037849e-03</internalNodes>
          <leafValues>
            -5.5904936790466309e-01 9.8046213388442993e-01</leafValues></_>
        <_>
          <internalNodes>
            0 -1 19 1.1517172679305077e-02</internalNodes>
          <leafValues>
            -8.5846698284149170e-01 6.0223877429962158e-01</leafValues></_>
        <_>
          <internalNodes>
            0 -1 8 2.1770116873085499e-03</internalNodes>
          <leafValues>
            -6.2958693504333496e-01 7.7013152837753296e-01</leafValues></_>
        <_>
          <internalNodes>
            0 -1 17 2.0729880779981613e-02</internalNodes>
          <leafValues>
            -5.3292530775070190e-01 9.3517136573791504e-01</leafValues></_>
        <_>
          <internalNodes>
            0 -1 16 -2.6032694149762392e-03</internalNodes>
          <leafValues>
            9.7254490852355957e-01 -4.6212261915206909e-01</leafValues></_>
        <_>
          <internalNodes>
            0 -1 0 2.0121917128562927e-02</internalNodes>
          <leafValues>
            -9.8161423206329346e-01 5.8027583360671997e-01</leafValues></_></weakClassifiers></_>
    <!-- stage 2 -->
    <_>
      <maxWeakCount>8</maxWeakCount>
      <stageThreshold>2.9703734442591667e-02</stageThreshold>
      <weakClassifiers>
        <_>
          <internalNodes>
            0 -1 11 1.5791255980730057e-02</internalNodes>
          <leafValues>
            -6.3043481111526489e-01 7.7678573131561279e-01</leafValues></_>
        <_>
          <internalNodes>
            0 -1 6 3.9762849919497967e-03</internalNodes>
          <leafValues>
            -5.4580068588256836e-01 8.9718061685562134e-01</leafValues></_>
        <_>
          <internalNodes>
            0 -1 2 -2.4380076676607132e-02</internalNodes>
          <leafValues>
            5.2257144451141357e-01 -9.2639070749282837e-01</leafValues></_>
        <_>
          <internalNodes>
            0 -1 5 -2.5558713823556900e-02</internalNodes>
          <leafValues>
            9.8775810003280640e-01 -4.6726766228675842e-01</leafValues></_>
        <_>
          <internalNodes>
            0 -1 18 2.4634160101413727e-02</internalNodes>
          <leafValues>
            -4.3135622143745422e-01 9.7873663902282715e-01</leafValues></_>
        <_>
          <internalNodes>
            0 -1 13 -2.5036169216036797e-02</internalNodes>
          <leafValues>
            9.6255654096603394e-01 -3.4369730949401855e-01</leafValues></_>
        <_>
          <internalNodes>
            0 -1 10 5.5532976984977722e-03</internalNodes>
          <leafValues>
            -3.1825697422027588e-01 9.8095095157623291e-01</leafValues></_>
        <_>
          <internalNodes>
            0 -1 4 -6.6254474222660065e-03</internalNodes>
          <leafValues>
            9.7943371534347534e-01 -3.3249074220657349e-01</leafValues></_></weakClassifiers></_></stages>
  <features>
    <_>
      <rects>
        <_>
          0 0 20 6 -1.</_>
        <_>
          5 0 10 6 2.</_></rects>
      <tilted>0</tilted></_>
    <_>
      <rects>
        <_>
          0 1 4 19 -1.</_>
        <_>
          2 1 2 19 2.</_></rects>
      <tilted>0</tilted></_>
    <_>
      <rects>
        <_>
          0 14 20 6 -1.</_>
        <_>
          0 17 20 3 2.</_></rects>
      <tilted>0</tilted></_>
    <_>
      <rects>
        <_>
          1 0 1 2 -1.</_>
        <_>
          1 1 1 1 2.</_></rects>
      <tilted>0</tilted></_>
    <_>
      <rects>
        <_>
          5 8 1 3 -1.</_>
        <_>
          5 9 1 1 3.</_></rects>
      <tilted>0</tilted></_>
    <_>
      <rects>
        <_>
          5 10 3 3 -1.</_>
        <_>
          6 11 1 1 9.</_></rects>
      <tilted>0</tilted></_>
    <_>
      <rects>
        <_>
          6 8 3 1 -1.</_>
        <_>
          7 8 1 1 3.</_></rects>
      <tilted>0</tilted></_>
    <_>
      <rects>
        <_>
          7 6 3 1 -1.</_>
        <_>
          8 6 1 1 3.</_></rects>
      <tilted>0</tilted></_>
    <_>
      <rects>
        <_>
          7 10 4 2 -1.</_>
        <_>
          7 10 2 1 2.</_>
        <_>
          9 11 2 1 2.</_></rects>
      <tilted>0</tilted></_>
    <_>
      <rects>
        <_>
          7 14 3 1 -1.</_>
        <_>
          8 14 1 1 3.</_></rects>
      <tilted>0</tilted></_>
    <_>
      <rects>
        <_>
          8 7 2 1 -1.</_>
        <_>
          9 7 1 1 2.</_></rects>
      <tilted>0</tilted></_>
    <_>
      <rects>
        <_>
          9 7 3 3 -1.</_>
        <_>
          10 8 1 1 9.</_></rects>
      <tilted>0</tilted></_>
    <_>
      <rects>
        <_>
          9 9 1 3 -1.</_>
        <_>
          9 10 1 1 3.</_></rects>
      <tilted>0</tilted></_>
    <_>
      <rects>
        <_>
          9 12 3 3 -1.</_>
        <_>
          10 13 1 1 9.</_></rects>
      <tilted>0</tilted></_>
    <_>
      <rects>
        <_>
          9 13 3 1 -1.</_>
        <_>
          10 13 1 1 3.</_></rects>
      <tilted>0</tilted></_>
    <_>
      <rects>
        <_>
          10 11 3 3 -1.</_>
        <_>
          11 12 1 1 9.</_></rects>
      <tilted>0</tilted></_>
    <_>
      <rects>
        <_>
          11 7 2 2 -1.</_>
        <_>
          11 7 1 1 2.</_>
        <_>
          12 8 1 1 2.</_></rects>
      <tilted>0</tilted></_>
    <_>
      <rects>
        <_>
          11 7 3 3 -1.</_>
        <_>
          12 8 1 1 9.</_></rects>
      <tilted>0</tilted></_>
    <_>
      <rects>
        <_>
          12 9 4 3 -1.</_>
        <_>
          12 10 4 1 3.</_></rects>
      <tilted>0</tilted></_>
    <_>
      <rects>
        <_>
          14 0 6 6 -1.</_>
        <_>
          14 3 6 3 2.</_></rects>
      <tilted>0</tilted></_>
    <_>
      <rects>
        <_>
          16 1 4 18 -1.</_>
        <_>
          18 1 2 18 2.</_></rects>
      <tilted>0</tilted></_></features></cascade>
</opencv_storage>
